digraph Tree {
node [shape=box, style="filled, rounded", color="black", fontname="helvetica"] ;
edge [fontname="helvetica"] ;
0 [label=<petal_width &le; 0.8<br/>gini = 0.659<br/>samples = 69<br/>value = [46, 32, 42]>, fillcolor="#fef9f5"] ;
1 [label=<gini = 0.0<br/>samples = 28<br/>value = [46, 0, 0]>, fillcolor="#e58139"] ;
0 -> 1 [labeldistance=2.5, labelangle=45, headlabel="True"] ;
2 [label=<petal_length &le; 4.75<br/>gini = 0.491<br/>samples = 41<br/>value = [0, 32, 42]>, fillcolor="#e1d0f9"] ;
0 -> 2 [labeldistance=2.5, labelangle=-45, headlabel="False"] ;
3 [label=<gini = 0.0<br/>samples = 20<br/>value = [0, 31, 0]>, fillcolor="#39e581"] ;
2 -> 3 ;
4 [label=<petal_width &le; 1.75<br/>gini = 0.045<br/>samples = 21<br/>value = [0, 1, 42]>, fillcolor="#843ee6"] ;
2 -> 4 ;
5 [label=<sepal_length &le; 6.5<br/>gini = 0.375<br/>samples = 3<br/>value = [0, 1, 3]>, fillcolor="#ab7bee"] ;
4 -> 5 ;
6 [label=<gini = 0.0<br/>samples = 2<br/>value = [0, 0, 3]>, fillcolor="#8139e5"] ;
5 -> 6 ;
7 [label=<gini = 0.0<br/>samples = 1<br/>value = [0, 1, 0]>, fillcolor="#39e581"] ;
5 -> 7 ;
8 [label=<gini = 0.0<br/>samples = 18<br/>value = [0, 0, 39]>, fillcolor="#8139e5"] ;
4 -> 8 ;
}